digraph Tree {
node [shape=box, style="filled, rounded", color="black", fontname=helvetica] ;
edge [fontname=helvetica] ;
0 [label=<Years &le; 4.5<br/>mse = 202734.269<br/>samples = 263<br/>value = 535.926>, fillcolor="#fae5d7"] ;
1 [label=<RBI &le; 1.5<br/>mse = 75213.015<br/>samples = 90<br/>value = 225.831>, fillcolor="#fef9f5"] ;
0 -> 1 [labeldistance=2.5, labelangle=45, headlabel="True"] ;
2 [label=<mse = 0.0<br/>samples = 1<br/>value = 2127.333>, fillcolor="#e58139"] ;
1 -> 2 ;
3 [label=<Walks &le; 71.5<br/>mse = 34975.701<br/>samples = 89<br/>value = 204.466>, fillcolor="#fefaf8"] ;
1 -> 3 ;
4 [label=<Walks &le; 3.0<br/>mse = 19620.609<br/>samples = 85<br/>value = 182.735>, fillcolor="#fefcfa"] ;
3 -> 4 ;
5 [label=<mse = 0.0<br/>samples = 1<br/>value = 920.0>, fillcolor="#f5cdb1"] ;
4 -> 5 ;
6 [label=<Years &le; 3.5<br/>mse = 13306.21<br/>samples = 84<br/>value = 173.958>, fillcolor="#fefcfb"] ;
4 -> 6 ;
7 [label=<mse = 3289.241<br/>samples = 58<br/>value = 129.353>, fillcolor="#ffffff"] ;
6 -> 7 ;
8 [label=<mse = 21312.537<br/>samples = 26<br/>value = 273.462>, fillcolor="#fdf6f1"] ;
6 -> 8 ;
9 [label=<RBI &le; 89.5<br/>mse = 137992.188<br/>samples = 4<br/>value = 666.25>, fillcolor="#f8ddca"] ;
3 -> 9 ;
10 [label=<Years &le; 3.5<br/>mse = 47705.556<br/>samples = 3<br/>value = 481.667>, fillcolor="#fae9dc"] ;
9 -> 10 ;
11 [label=<mse = 17556.25<br/>samples = 2<br/>value = 347.5>, fillcolor="#fcf1e9"] ;
10 -> 11 ;
12 [label=<mse = 0.0<br/>samples = 1<br/>value = 750.0>, fillcolor="#f7d8c1"] ;
10 -> 12 ;
13 [label=<mse = 0.0<br/>samples = 1<br/>value = 1220.0>, fillcolor="#f1ba93"] ;
9 -> 13 ;
14 [label=<Hits &le; 117.5<br/>mse = 193025.735<br/>samples = 173<br/>value = 697.247>, fillcolor="#f8dbc7"] ;
0 -> 14 [labeldistance=2.5, labelangle=-45, headlabel="False"] ;
15 [label=<Walks &le; 43.5<br/>mse = 59023.561<br/>samples = 90<br/>value = 464.917>, fillcolor="#fbeade"] ;
14 -> 15 ;
16 [label=<Walks &le; 21.5<br/>mse = 42252.913<br/>samples = 69<br/>value = 414.406>, fillcolor="#fbede3"] ;
15 -> 16 ;
17 [label=<RBI &le; 15.5<br/>mse = 23035.8<br/>samples = 26<br/>value = 324.737>, fillcolor="#fcf3ec"] ;
16 -> 17 ;
18 [label=<mse = 131406.25<br/>samples = 2<br/>value = 537.5>, fillcolor="#fae5d7"] ;
17 -> 18 ;
19 [label=<mse = 9918.235<br/>samples = 24<br/>value = 307.007>, fillcolor="#fdf4ed"] ;
17 -> 19 ;
20 [label=<Years &le; 6.5<br/>mse = 46071.278<br/>samples = 43<br/>value = 468.624>, fillcolor="#fbeadd"] ;
16 -> 20 ;
21 [label=<mse = 35107.101<br/>samples = 13<br/>value = 343.269>, fillcolor="#fcf2ea"] ;
20 -> 21 ;
22 [label=<mse = 41062.391<br/>samples = 30<br/>value = 522.944>, fillcolor="#fae6d8"] ;
20 -> 22 ;
23 [label=<Years &le; 10.5<br/>mse = 78199.98<br/>samples = 21<br/>value = 630.881>, fillcolor="#f8dfcd"] ;
15 -> 23 ;
24 [label=<Runs &le; 39.0<br/>mse = 36201.837<br/>samples = 13<br/>value = 508.667>, fillcolor="#fae7d9"] ;
23 -> 24 ;
25 [label=<mse = 0.0<br/>samples = 1<br/>value = 875.0>, fillcolor="#f5d0b5"] ;
24 -> 25 ;
26 [label=<mse = 27103.37<br/>samples = 12<br/>value = 478.139>, fillcolor="#fae9dc"] ;
24 -> 26 ;
27 [label=<Years &le; 17.0<br/>mse = 82734.199<br/>samples = 8<br/>value = 829.479>, fillcolor="#f6d3ba"] ;
23 -> 27 ;
28 [label=<mse = 43546.707<br/>samples = 6<br/>value = 958.056>, fillcolor="#f4cbad"] ;
27 -> 28 ;
29 [label=<mse = 1914.062<br/>samples = 2<br/>value = 443.75>, fillcolor="#fbebe0"] ;
27 -> 29 ;
30 [label=<Walks &le; 60.5<br/>mse = 216334.03<br/>samples = 83<br/>value = 949.171>, fillcolor="#f4cbae"] ;
14 -> 30 ;
31 [label=<Runs &le; 112.0<br/>mse = 92749.5<br/>samples = 50<br/>value = 781.3>, fillcolor="#f7d6be"] ;
30 -> 31 ;
32 [label=<HmRun &le; 6.5<br/>mse = 64968.861<br/>samples = 49<br/>value = 756.938>, fillcolor="#f7d7c1"] ;
31 -> 32 ;
33 [label=<mse = 45833.333<br/>samples = 9<br/>value = 557.5>, fillcolor="#f9e4d5"] ;
32 -> 33 ;
34 [label=<mse = 58311.196<br/>samples = 40<br/>value = 801.812>, fillcolor="#f6d5bc"] ;
32 -> 34 ;
35 [label=<mse = -0.0<br/>samples = 1<br/>value = 1975.0>, fillcolor="#e78b48"] ;
31 -> 35 ;
36 [label=<RBI &le; 101.0<br/>mse = 296191.1<br/>samples = 33<br/>value = 1203.521>, fillcolor="#f1bb95"] ;
30 -> 36 ;
37 [label=<Walks &le; 73.5<br/>mse = 245518.829<br/>samples = 29<br/>value = 1113.075>, fillcolor="#f2c19e"] ;
36 -> 37 ;
38 [label=<mse = 96646.583<br/>samples = 13<br/>value = 903.141>, fillcolor="#f5ceb2"] ;
37 -> 38 ;
39 [label=<mse = 301574.396<br/>samples = 16<br/>value = 1283.646>, fillcolor="#f0b68d"] ;
37 -> 39 ;
40 [label=<Runs &le; 102.5<br/>mse = 174265.496<br/>samples = 4<br/>value = 1859.258>, fillcolor="#e89254"] ;
36 -> 40 ;
41 [label=<mse = 60539.461<br/>samples = 3<br/>value = 2066.51>, fillcolor="#e6853f"] ;
40 -> 41 ;
42 [label=<mse = 0.0<br/>samples = 1<br/>value = 1237.5>, fillcolor="#f1b991"] ;
40 -> 42 ;
}